
\data\
ngram 1=11
ngram 2=9
ngram 3=0

\1-grams:
-0.30103	!!UNK
-1.255273	</s>
-99	<s>	-0.2762064
-1.255273	BUY	-0.2762064
-1.255273	GALLON	-0.2762064
-1.255273	GAS	-0.2762064
-1.255273	I'D	-0.2762064
-1.255273	NOT	-0.2762064
-1.255273	OF	-0.2762064
-1.255273	RATHER	-0.2762064
-1.255273	THESE	-0.2762064

\2-grams:
-0.30103	<s> GALLON
-0.30103	BUY THESE
-0.30103	GALLON OF
-0.30103	GAS I'D
-0.30103	I'D RATHER
-0.30103	NOT BUY
-0.30103	OF GAS
-0.30103	RATHER NOT
-0.30103	THESE </s>

\3-grams:

\end\
