
\data\
ngram 1=5
ngram 2=3
ngram 3=0

\1-grams:
-0.30103	!!UNK
-0.7781513	</s>
-99	<s>	-0.2218487
-0.7781513	HER	-0.2218487
-0.7781513	OVERCHARGED	-0.2218487

\2-grams:
-0.30103	<s> OVERCHARGED
-0.30103	HER </s>
-0.30103	OVERCHARGED HER

\3-grams:

\end\
