
\data\
ngram 1=6
ngram 2=4
ngram 3=0

\1-grams:
-0.30103	!!UNK
-0.90309	</s>
-99	<s>	-0.243038
-0.90309	BOWL	-0.243038
-0.90309	DON'T	-0.243038
-0.90309	LARGE	-0.243038

\2-grams:
-0.30103	<s> LARGE
-0.30103	BOWL DON'T
-0.30103	DON'T </s>
-0.30103	LARGE BOWL

\3-grams:

\end\
