
\data\
ngram 1=6
ngram 2=4
ngram 3=0

\1-grams:
-0.30103	!!UNK
-0.90309	</s>
-99	<s>	-0.243038
-0.90309	AIR	-0.243038
-0.90309	SHAVING	-0.243038
-0.90309	UP	-0.243038

\2-grams:
-0.30103	<s> UP
-0.30103	AIR SHAVING
-0.30103	SHAVING </s>
-0.30103	UP AIR

\3-grams:

\end\
