
\data\
ngram 1=14
ngram 2=12
ngram 3=0

\1-grams:
-0.30103	!!UNK
-1.380211	</s>
-99	<s>	-0.2825466
-1.380211	AND	-0.2825466
-1.380211	ARE	-0.2825466
-1.380211	CONSISTS	-0.2825466
-1.380211	EXCLUDED	-0.2825466
-1.380211	HER	-0.2825466
-1.380211	OF	-0.2825466
-1.380211	OFTEN	-0.2825466
-1.380211	ONLY	-0.2825466
-1.380211	PEOPLE	-0.2825466
-1.380211	SKIRTS	-0.2825466
-1.380211	WARDROBE	-0.2825466

\2-grams:
-0.30103	<s> PEOPLE
-0.30103	AND </s>
-0.30103	ARE OFTEN
-0.30103	CONSISTS OF
-0.30103	EXCLUDED HER
-0.30103	HER WARDROBE
-0.30103	OF ONLY
-0.30103	OFTEN EXCLUDED
-0.30103	ONLY SKIRTS
-0.30103	PEOPLE ARE
-0.30103	SKIRTS AND
-0.30103	WARDROBE CONSISTS

\3-grams:

\end\
