
\data\
ngram 1=13
ngram 2=13
ngram 3=0

\1-grams:
-0.3388186	!!UNK
-1.380211	</s>
-99	<s>	-0.2825466
-1.380211	BEHIND	-0.2825466
-1.079181	IN	-0.2632414
-1.380211	LETTERS	-0.2825466
-1.380211	ORDER	-0.2632414
-1.380211	PURCHASERS	-0.2825466
-1.380211	REJECTED	-0.2632414
-1.079181	THE	-0.2632414
-1.380211	THIS	-0.2632414
-1.380211	TWO	-0.2825466
-1.380211	WRITTEN	-0.2632414

\2-grams:
-0.30103	<s> BEHIND
-0.30103	BEHIND THIS
-0.60206	IN </s>
-0.60206	IN TWO
-0.30103	LETTERS WRITTEN
-0.30103	ORDER IN
-0.30103	PURCHASERS REJECTED
-0.30103	REJECTED THE
-0.60206	THE ORDER
-0.60206	THE PURCHASERS
-0.30103	THIS THE
-0.30103	TWO LETTERS
-0.30103	WRITTEN IN

\3-grams:

\end\
