
\data\
ngram 1=5
ngram 2=3
ngram 3=0

\1-grams:
-0.30103	!!UNK
-0.7781513	</s>
-99	<s>	-0.2218487
-0.7781513	HAD	-0.2218487
-0.7781513	YOUR	-0.2218487

\2-grams:
-0.30103	<s> HAD
-0.30103	HAD YOUR
-0.30103	YOUR </s>

\3-grams:

\end\
