
\data\
ngram 1=10
ngram 2=8
ngram 3=0

\1-grams:
-0.30103	!!UNK
-1.20412	</s>
-99	<s>	-0.2730013
-1.20412	A	-0.2730013
-1.20412	ASK	-0.2730013
-1.20412	BOWL	-0.2730013
-1.20412	DON'T	-0.2730013
-1.20412	IN	-0.2730013
-1.20412	LARGE	-0.2730013
-1.20412	ME	-0.2730013

\2-grams:
-0.30103	<s> IN
-0.30103	A LARGE
-0.30103	ASK ME
-0.30103	BOWL DON'T
-0.30103	DON'T ASK
-0.30103	IN A
-0.30103	LARGE BOWL
-0.30103	ME </s>

\3-grams:

\end\
