
\data\
ngram 1=426
ngram 2=625
ngram 3=84

\1-grams:
-0.4828871	!!UNK
-3.110253	</s>
-99	<s>	-0.3006929
-1.678889	A	-0.3181654
-3.110253	ACCUSE	-0.2918364
-3.110253	ACHES	-0.3006929
-3.110253	ADDED	-0.3006929
-3.110253	ADULTHOOD	-0.296968
-3.110253	ADVISABLE	-0.2986651
-3.110253	AGAIN	-0.3003556
-3.110253	AGE	-0.3006929
-3.110253	AIR	-0.3003556
-2.06886	ALL	-0.6511235
-3.110253	ALLIGATORS	-0.2983262
-3.110253	ALONE	-0.3006929
-3.110253	ALWAYS	-0.3003556
-3.110253	AM	-0.300018
-3.110253	AMBULANCE	-0.2986651
-1.99631	AN	-0.7225965
-3.110253	ANAESTHESIA	-0.3006929
-2.110253	AND	-0.320789
-3.110253	ANTELOPE	-0.3006929
-2.809223	ANY	-0.3003556
-3.110253	APARTMENTS	-0.2983262
-2.809223	APOLOGY	-0.3003556
-3.110253	APPETIZERS	-0.2866435
-3.110253	APPROVAL	-0.2986651
-2.207163	ARE	-0.3224873
-3.110253	AREAS	-0.2983262
-3.110253	ARM	-0.2993421
-3.110253	ARRIVING	-0.2990037
-2.411283	AS	-0.2887282
-2.06886	ASK	-0.8088514
-3.110253	ASSEMBLED	-0.2932108
-3.110253	ASSISTANCE	-0.2990037
-2.508193	AT	-0.2993421
-3.110253	AUTISTIC	-0.3006929
-3.110253	AUTUMN	-0.3006929
-3.110253	AWAY	-0.2918364
-3.110253	BAROMETRIC	-0.3006929
-2.633132	BE	-0.2911476
-2.809223	BEAUTIFUL	-0.282444
-2.809223	BEDROOM	-0.4764469
-3.110253	BEFORE	-0.2990037
-3.110253	BEG	-0.2962872
-3.110253	BEHIND	-0.3003556
-3.110253	BEING	-0.3006929
-3.110253	BETWEEN	-0.3006929
-2.809223	BIG	-0.4764469
-3.110253	BIRTH	-0.3006929
-3.110253	BLINDNESS	-0.3006929
-3.110253	BLITZ	-0.3003556
-3.110253	BLOCK	-0.3006929
-3.110253	BLOUSES	-0.3006929
-3.110253	BOG	-0.3006929
-2.809223	BONES	-0.4737389
-3.110253	BORING	-0.3006929
-2.809223	BOWL	-0.2914922
-3.110253	BOX	-0.3006929
-3.110253	BREATH	-0.3006929
-3.110253	BRIGHT	-0.3006929
-3.110253	BROWN	-0.3006929
-3.110253	BUGLE	-0.3006929
-3.110253	BUT	-0.3003556
-3.110253	BUTCHER	-0.3006929
-3.110253	BUTTER	-0.3006929
-2.633132	BUY	-0.2996802
-2.809223	BY	-0.2862951
-2.809223	CALCIUM	-0.4764469
-3.110253	CALL	-0.2966277
-3.110253	CAN	-0.2918364
-2.110253	CARRY	-1.03699
-3.110253	CASHMERE	-0.3006929
-3.110253	CHANGES	-0.3003556
-2.809223	CHARLIE'S	-0.4764469
-2.809223	CHEAP	-0.4764469
-3.110253	CHILD	-0.3006929
-3.110253	CIRCLED	-0.2996802
-3.110253	CLIMATES	-0.2973079
-3.110253	CLUMSY	-0.3006929
-3.110253	COLD	-0.3006929
-2.809223	COLORED	-0.4627348
-3.110253	COLOSSAL	-0.3006929
-3.110253	COMBINE	-0.2973079
-3.110253	CONSISTS	-0.2956055
-3.110253	CONSTRUCTION	-0.2973079
-3.110253	CONTACT	-0.2986651
-3.110253	CONTAINS	-0.3006929
-3.110253	CONTROL	-0.2973079
-3.110253	CONVENIENT	-0.2986651
-3.110253	COOK	-0.3006929
-3.110253	CORDUROY	-0.3006929
-3.110253	CORNERED	-0.2996802
-2.809223	COUNTRYSIDE	-0.4764469
-3.110253	COVERAGE	-0.2956055
-3.110253	CRANBERRY	-0.3006929
-2.809223	CRAYONS	-0.2862951
-2.809223	CREAM	-0.4744175
-3.110253	CURIOUS	-0.300018
-3.110253	CUSTOMER	-0.3006929
-3.110253	DAPHNE'S	-0.3006929
-2.15601	DARK	-0.9969571
-3.110253	DATE	-0.2866435
-3.110253	DAYS	-0.2866435
-3.110253	DEATH	-0.2866435
-3.110253	DEEP	-0.3006929
-3.110253	DEEPLY	-0.3006929
-2.809223	DEW	-0.475095
-2.633132	DID	-0.2841988
-3.110253	DIMES	-0.2976476
-2.809223	DIRTY	-0.4764469
-2.809223	DISHES	-0.2859464
-3.110253	DISLIKES	-0.3006929
-2.809223	DO	-0.4764469
-3.110253	DOESN'T	-0.3006929
-2.031072	DON'T	-0.8406959
-3.110253	DOSES	-0.2983262
-3.110253	DREW	-0.2918364
-3.110253	DROP	-0.3006929
-3.110253	DRY	-0.3006929
-3.110253	EACH	-0.3006929
-3.110253	ELDERLY	-0.3003556
-3.110253	ELECTRIC	-0.3006929
-3.110253	EMOTIONAL	-0.3006929
-3.110253	ENJOY	-0.3006929
-3.110253	EVEN	-0.2918364
-3.110253	EVERY	-0.3006929
-3.110253	EXCLUDED	-0.2996802
-3.110253	EXPENSIVE	-0.3006929
-3.110253	EXPLORING	-0.2986651
-3.110253	EYEBROW	-0.3006929
-3.110253	EYES	-0.3006929
-3.110253	FAMILY	-0.3006929
-3.110253	FAVORABLE	-0.3006929
-3.110253	FEW	-0.3006929
-2.809223	FIRST	-0.4757715
-3.110253	FIVE	-0.3006929
-3.110253	FLAME	-0.3003556
-3.110253	FLOWERS	-0.300018
-3.110253	FOG	-0.3006929
-3.110253	FOLLOW	-0.2973079
-2.265155	FOR	-0.3245288
-3.110253	FORMS	-0.2932108
-3.110253	FRAME	-0.3006929
-3.110253	FREEWAY	-0.3006929
-3.110253	FROM	-0.3006929
-3.110253	FRUIT	-0.2956055
-3.110253	GALLON	-0.2956055
-3.110253	GARAGE	-0.3006929
-3.110253	GAS	-0.3006929
-3.110253	GATES	-0.2866435
-3.110253	GEESE	-0.2866435
-3.110253	GENTLEMAN	-0.2973079
-3.110253	GETS	-0.3006929
-2.809223	GLISTENED	-0.4693021
-3.110253	GO	-0.3006929
-2.15601	GREASY	-0.9969571
-2.809223	GREG	-0.4716968
-3.110253	GUARD	-0.2986651
-3.110253	GUNMAN	-0.3006929
-3.110253	GUNPOINT	-0.2986651
-2.15601	HAD	-0.9966176
-2.809223	HALLOWEEN	-0.4764469
-3.110253	HAND	-0.3006929
-3.110253	HAVE	-0.3006929
-2.809223	HE	-0.3003556
-3.110253	HEALTHIER	-0.2956055
-3.110253	HEATER	-0.2983262
-2.809223	HELP	-0.4764469
-2.508193	HER	-0.2996802
-3.110253	HIGH	-0.2993421
-3.110253	HIGHWAY	-0.2976476
-2.508193	HIS	-0.2986651
-2.809223	HISTORY	-0.2904577
-3.110253	HOURS	-0.3006929
-2.809223	HOUSE	-0.4693021
-3.110253	HOUSING	-0.2866435
-3.110253	HUB	-0.2990037
-3.110253	I	-0.3006929
-3.110253	I'D	-0.3006929
-3.110253	ICY	-0.3006929
-3.110253	IDIOSYNCRASIES	-0.3003556
-3.110253	IGUANAS	-0.2976476
-1.748525	IN	-0.4870802
-3.110253	INFANCY	-0.2976476
-3.110253	INGREDIENTS	-0.2932108
-3.110253	IRONIC	-0.3006929
-2.207163	IS	-0.3415847
-2.411283	IT	-0.2945808
-3.110253	IT'S	-0.3006929
-2.809223	ITEM	-0.475095
-3.110253	ITS	-0.3006929
-3.110253	ITSELF	-0.3006929
-3.110253	JACKASS	-0.3006929
-3.110253	JARS	-0.2983262
-3.110253	JENNIFER'S	-0.3006929
-3.110253	JUST	-0.2918364
-3.110253	KEPT	-0.2996802
-3.110253	KNEW	-0.2962872
-3.110253	LARGE	-0.3003556
-3.110253	LET	-0.2973079
-3.110253	LETTERS	-0.3006929
-2.06886	LIKE	-0.8074889
-3.110253	LITERATURE	-0.3006929
-3.110253	LOWER	-0.3006929
-3.110253	LUNCH	-0.296968
-2.633132	MADE	-0.3921742
-2.809223	MAKES	-0.4764469
-3.110253	MAN	-0.3006929
-3.110253	MANIFEST	-0.3006929
-3.110253	MARK	-0.2956055
-3.110253	MARRIAGE	-0.296968
-3.110253	MASONRY	-0.2976476
-3.110253	MATCHED	-0.2996802
-2.06886	ME	-0.8057797
-3.110253	MEAN	-0.2866435
-3.110253	MEANS	-0.3006929
-3.110253	MEAT	-0.3006929
-3.110253	MEDICAL	-0.3006929
-2.809223	MICHAEL	-0.4764469
-3.110253	MINE	-0.3006929
-2.809223	MISQUOTE	-0.475095
-3.110253	MOLD	-0.3006929
-3.110253	MOM	-0.3006929
-3.110253	MORAL	-0.3006929
-2.809223	MORNING	-0.4764469
-3.110253	MOVEMENT	-0.2973079
-3.110253	MUST	-0.3006929
-3.110253	MUSTACHE	-0.2973079
-3.110253	NATURE	-0.2866435
-3.110253	NEEDLEPOINT	-0.3006929
-3.110253	NEVER	-0.300018
-3.110253	NOISY	-0.2866435
-3.110253	NOT	-0.300018
-3.110253	NOVEL	-0.2983262
-3.110253	NOWADAYS	-0.3003556
-2.809223	OBJECTS	-0.4761093
-3.110253	OBSERVANCE	-0.2866435
-3.110253	OBVERSE	-0.2956055
-1.906133	OF	-0.3344163
-2.633132	OFTEN	-0.300018
-3.110253	OH	-0.2866435
-3.110253	OIL	-0.3006929
-2.110253	OILY	-1.03801
-3.110253	OLD	-0.3003556
-3.110253	OMITTED	-0.2993421
-2.332102	ON	-0.3719057
-2.809223	ONE	-0.3003556
-3.110253	ONLY	-0.3006929
-3.110253	ORDER	-0.2932108
-3.110253	ORGANIZATIONS	-0.3006929
-3.110253	OTHERS	-0.3003556
-3.110253	OUT	-0.3006929
-3.110253	OVERALLS	-0.296968
-3.110253	OVERCHARGED	-0.2996802
-2.633132	OWN	-0.3880576
-3.110253	PARENTAL	-0.3006929
-3.110253	PARENTHOOD	-0.3006929
-3.110253	PATIENT'S	-0.3006929
-2.809223	PECK	-0.4716968
-2.809223	PEOPLE	-0.297987
-3.110253	PERFUME	-0.3006929
-2.809223	PEWTER	-0.4744175
-3.110253	PHYSICAL	-0.3006929
-2.809223	PICK	-0.4679277
-3.110253	PILL	-0.296968
-3.110253	PIZZERIAS	-0.2983262
-3.110253	PLANNED	-0.3006929
-3.110253	POISONED	-0.2973079
-3.110253	POND	-0.2976476
-2.809223	POPULAR	-0.4764469
-3.110253	PORK	-0.296968
-3.110253	PORTABLE	-0.3006929
-3.110253	PORTION	-0.3006929
-2.809223	POTATOES	-0.2904577
-3.110253	PRESSURE	-0.3006929
-3.110253	PRETTY	-0.2932108
-3.110253	PREVENTED	-0.3006929
-3.110253	PRIMARY	-0.3006929
-3.110253	PROJECTS	-0.3006929
-3.110253	PROMOTE	-0.3006929
-3.110253	PROPRIETY	-0.2990037
-3.110253	PROTECTED	-0.3003556
-3.110253	PROVIDES	-0.2918364
-3.110253	PSYCHICAL	-0.3006929
-3.110253	PURCHASERS	-0.3006929
-3.110253	PUT	-0.2866435
-3.110253	QUARTERS	-0.2996802
-3.110253	QUESTIONS	-0.3006929
-3.110253	QUICK	-0.3006929
-2.110253	RAG	-1.037671
-3.110253	RATHER	-0.3006929
-3.110253	RATING	-0.2996802
-3.110253	REASSURANCE	-0.2866435
-3.110253	RECOGNIZE	-0.2996802
-3.110253	RECTOR	-0.2990037
-3.110253	RED	-0.3006929
-3.110253	REJECTED	-0.2866435
-2.809223	REMOTE	-0.4764469
-3.110253	REPTILES	-0.3003556
-3.110253	REQUESTS	-0.2962872
-3.110253	REQUIRES	-0.3006929
-3.110253	RESULTS	-0.2996802
-2.809223	RETRACTED	-0.4747564
-3.110253	RIGHT	-0.3006929
-3.110253	RISING	-0.3006929
-3.110253	RITUAL	-0.3006929
-3.110253	ROB	-0.3006929
-3.110253	RULE	-0.2866435
-2.809223	RUN	-0.4627348
-3.110253	RURAL	-0.3006929
-3.110253	SAME	-0.3006929
-3.110253	SAT	-0.3003556
-3.110253	SCARED	-0.2866435
-3.110253	SCARF	-0.3006929
-3.110253	SEEMED	-0.3006929
-3.110253	SEVERAL	-0.3006929
-3.110253	SHALLOWNESS	-0.3006929
-3.110253	SHAME	-0.2956055
-2.809223	SHAVING	-0.4764469
-2.06886	SHE	-0.6622155
-3.110253	SHELTERS	-0.2932108
-3.110253	SHIPMATE	-0.2956055
-3.110253	SHOES	-0.3003556
-3.110253	SHORT	-0.3006929
-3.110253	SHOWING	-0.3006929
-3.110253	SIMPLE	-0.3006929
-3.110253	SKETCHED	-0.2866435
-3.110253	SKIRMISH	-0.3006929
-3.110253	SKIRT	-0.3006929
-3.110253	SKIRTS	-0.2976476
-3.110253	SLEEPING	-0.3006929
-3.110253	SLOWLY	-0.2986651
-3.110253	SOME	-0.3006929
-3.110253	SOUND	-0.2956055
-2.809223	SPIDER	-0.4764469
-3.110253	SPILLED	-0.3006929
-2.809223	SQUEAKED	-0.2986651
-3.110253	STAGE	-0.3006929
-3.110253	STERILIZATION	-0.3006929
-3.110253	STEVE	-0.3006929
-3.110253	STILL	-0.2976476
-2.809223	STOCKINGS	-0.4764469
-3.110253	STORY	-0.2973079
-3.110253	STRAY	-0.3006929
-3.110253	STREAMS	-0.2956055
-2.809223	STRONG	-0.4764469
-3.110253	STRONGLY	-0.3006929
-3.110253	STRUCTURES	-0.3006929
-3.110253	STUPID	-0.3006929
-3.110253	SUGAR	-0.3006929
-2.15601	SUIT	-0.9921808
-2.809223	SUN	-0.4764469
-3.110253	SUPERB	-0.3006929
-3.110253	SWEATER	-0.2962872
-3.110253	SWEDISH	-0.3006929
-3.110253	SWING	-0.2976476
-3.110253	SYMBOLS	-0.2866435
-3.110253	SYNONYMOUS	-0.2986651
-3.110253	TABLE	-0.2932108
-3.110253	TALK	-0.2993421
-2.809223	TEETH	-0.4764469
-3.110253	TEMPTED	-0.2956055
-3.110253	TENTACLES	-0.3006929
-3.110253	TERMS	-0.2973079
-2.809223	THAN	-0.2996802
-1.964125	THAT	-0.2838484
-1.487004	THE	-0.3266409
-3.110253	THEIR	-0.3006929
-3.110253	THEM	-0.3006929
-3.110253	THEN	-0.300018
-3.110253	THESE	-0.3006929
-2.809223	THEY	-0.4761093
-2.809223	THEY'RE	-0.4764469
-3.110253	THIGHS	-0.3006929
-3.110253	THING	-0.2866435
-3.110253	THINNER	-0.3003556
-2.809223	THIS	-0.2827955
-3.110253	THOUGH	-0.2866435
-3.110253	THREE	-0.3006929
-3.110253	THROW	-0.3006929
-2.508193	TIME	-0.3539385
-1.906133	TO	-0.5554218
-3.110253	TOLL	-0.3006929
-3.110253	TOO	-0.3003556
-3.110253	TRADITION	-0.3006929
-3.110253	TRAFFIC	-0.3006929
-3.110253	TRIVIALITY	-0.3006929
-3.110253	TROPICAL	-0.3006929
-3.110253	TRUE	-0.3006929
-3.110253	TWO	-0.3006929
-3.110253	UNDER	-0.3006929
-3.110253	UNNECESSARILY	-0.3006929
-3.110253	UNTIL	-0.2990037
-3.110253	UP	-0.3006929
-2.809223	USE	-0.3003556
-3.110253	VERY	-0.3006929
-3.110253	VICTIM	-0.3006929
-3.110253	VIGOROUS	-0.3006929
-3.110253	VOCABULARY	-0.3006929
-2.809223	WALL	-0.4747564
-3.110253	WARDROBE	-0.3006929
-2.332102	WAS	-0.3383606
-2.15601	WASH	-0.9969571
-2.15601	WATER	-0.9962779
-3.110253	WAYS	-0.3006929
-2.809223	WE	-0.3003556
-2.809223	WEB	-0.4764469
-2.809223	WERE	-0.2914922
-3.110253	WHAT	-0.3006929
-3.110253	WHEEL	-0.3003556
-3.110253	WHEN	-0.2990037
-3.110253	WHENEVER	-0.2866435
-2.809223	WHY	-0.2996802
-3.110253	WILL	-0.3006929
-2.265155	WITH	-0.3741039
-3.110253	WITHOUT	-0.3006929
-3.110253	WORE	-0.2918364
-2.809223	WORN	-0.4733992
-2.809223	WOULD	-0.2993421
-3.110253	WRITTEN	-0.2932108
-2.15601	YEAR	-0.3765316
-3.110253	YET	-0.3006929
-2.332102	YOU	-0.2983263
-2.110253	YOUR	-0.7747689
-3.110253	ZONING	-0.3006929

\2-grams:
-0.30103	<s> TRADITION
-1.40654	A BIG	0
-1.70757	A BORING
-1.70757	A BRIGHT
-1.70757	A COLOSSAL
-1.70757	A DEEP
-1.70757	A DEEPLY
-1.70757	A FLAME
-1.70757	A HUB
-1.70757	A LARGE
-1.70757	A MEDICAL
-1.40654	A PECK	0
-1.40654	A POPULAR	0
-1.70757	A PORTABLE
-1.70757	A QUICK
-1.70757	A RATING
-1.70757	A RULE
-1.70757	A SHIPMATE
-1.70757	A SHORT
-1.70757	A SIMPLE
-1.70757	A STORY
-1.70757	A STUPID
-1.70757	A SUPERB
-1.70757	A TRUE
-1.70757	A WHEEL
-0.30103	ACCUSE A
-0.30103	ACHES WHENEVER
-0.30103	ADDED TRAFFIC
-0.30103	ADULTHOOD DON'T
-0.30103	ADVISABLE FOR
-0.30103	AGAIN MICHAEL
-0.30103	AGE MARRIAGE
-0.30103	AIR SHAVING
-1.146128	ALL PROJECTS
-1.146128	ALL THE
-0.1918855	ALL YEAR	0
-0.30103	ALLIGATORS ARE
-0.30103	ALONE YET
-0.30103	ALWAYS USE
-0.30103	AM DID
-0.30103	AMBULANCE FOR
-1.20412	AN AMBULANCE
-0.90309	AN APOLOGY
-0.20412	AN OILY	0
-0.30103	ANAESTHESIA SWING
-1.278754	AND ADULTHOOD
-1.278754	AND ALLIGATORS
-1.278754	AND BLOUSES
-1.278754	AND FRAME
-1.278754	AND FREEWAY
-1.278754	AND QUARTERS
-1.278754	AND SKETCHED
-1.278754	AND SQUEAKED
-0.9777236	AND TEETH	0
-0.30103	ANTELOPE EVEN
-0.60206	ANY CORDUROY
-0.60206	ANY STAGE
-0.30103	APARTMENTS ARE
-0.60206	APOLOGY OH
-0.60206	APOLOGY PLANNED
-0.30103	APPETIZERS THE
-0.30103	APPROVAL FOR
-1.176091	ARE ASSEMBLED
-0.8750613	ARE BEAUTIFUL
-1.176091	ARE CONVENIENT
-1.176091	ARE OF
-1.176091	ARE OFTEN
-1.176091	ARE PROTECTED
-1.176091	ARE TROPICAL
-0.30103	AREAS ARE
-0.30103	ARM AS
-0.30103	ARRIVING ON
-1	AS A
-1	AS HIGH
-1	AS REASSURANCE
-1	AS THOUGH
-1	AS YOU
-0.1139434	ASK ME	-0.4045706
-1.113943	ASK QUESTIONS
-0.30103	ASSEMBLED IN
-0.30103	ASSISTANCE YOU
-0.90309	AT ANY
-0.90309	AT GUNPOINT
-0.90309	AT STERILIZATION
-0.90309	AT TOLL
-0.30103	AUTISTIC CHILD
-0.30103	AUTUMN BROWN
-0.30103	AWAY A
-0.30103	BAROMETRIC PRESSURE
-0.7781513	BE A
-0.7781513	BE OMITTED
-0.7781513	BE OVERCHARGED
-0.60206	BEAUTIFUL DON'T
-0.60206	BEAUTIFUL THE
-0.1760913	BEDROOM WALL	0
-0.30103	BEFORE YOU
-0.30103	BEG THAT
-0.30103	BEHIND THIS
-0.30103	BEING BEHIND
-0.30103	BETWEEN INFANCY
-0.1760913	BIG HOUSE	0
-0.30103	BIRTH CONTROL
-0.30103	BLINDNESS MANIFEST
-0.30103	BLITZ WERE
-0.30103	BLOCK TABLE
-0.30103	BLOUSES DROP
-0.30103	BOG GETS
-0.1760913	BONES AND	-0.4288166
-0.30103	BORING NOVEL
-0.60206	BOWL DON'T
-0.60206	BOWL OF
-0.30103	BOX BEFORE
-0.30103	BREATH ROB
-0.30103	BRIGHT RED
-0.30103	BROWN EYES
-0.30103	BUGLE SCARED
-0.30103	BUT HE
-0.30103	BUTCHER BLOCK
-0.30103	BUTTER MOLD
-0.7781513	BUY ANY
-0.7781513	BUY OIL
-0.7781513	BUY THESE
-0.60206	BY THE
-0.60206	BY ZONING
-0.1760913	CALCIUM MAKES	0
-0.30103	CALL AN
-0.30103	CAN A
-0.04139268	CARRY AN	-0.6154239
-0.30103	CASHMERE SWEATER
-0.30103	CHANGES HE
-0.1760913	CHARLIE'S DIRTY	0
-0.1760913	CHEAP STOCKINGS	0
-0.30103	CHILD DOESN'T
-0.30103	CIRCLED HER
-0.30103	CLIMATES SHE
-0.30103	CLUMSY CUSTOMER
-0.30103	COLD CLIMATES
-0.1760913	COLORED THE	-0.4656918
-0.30103	COLOSSAL SHAME
-0.30103	COMBINE ALL
-0.30103	CONSISTS OF
-0.30103	CONSTRUCTION SHE
-0.30103	CONTACT WITH
-0.30103	CONTAINS SYMBOLS
-0.30103	CONTROL SHE
-0.30103	CONVENIENT FOR
-0.30103	COOK WITHOUT
-0.30103	CORDUROY OVERALLS
-0.30103	CORNERED AT
-0.1760913	COUNTRYSIDE HELP	0
-0.30103	COVERAGE OF
-0.30103	CRANBERRY BOG
-0.60206	CRAYONS EVERY
-0.60206	CRAYONS THE
-0.1760913	CREAM IS	-0.3723859
-0.30103	CURIOUS OFTEN
-0.30103	CUSTOMER SPILLED
-0.30103	DAPHNE'S SWEDISH
-0.04575749	DARK SUIT	0
-0.30103	DATE THE
-0.30103	DAYS THE
-0.30103	DEATH THE
-0.30103	DEEP BREATH
-0.30103	DEEPLY MORAL
-0.1760913	DEW ON	-0.3802113
-0.7781513	DID MOM
-0.7781513	DID THE
-0.7781513	DID YOU
-0.30103	DIMES AND
-0.1760913	DIRTY DISHES
-0.60206	DISHES THE
-0.60206	DISHES WHY
-0.30103	DISLIKES APPETIZERS
-0.1760913	DO CHARLIE'S	0
-0.30103	DOESN'T ENJOY
-0.146128	DON'T ASK	-0.4045706
-0.845098	DON'T DO	0
-0.30103	DOSES IS
-0.30103	DREW A
-0.30103	DROP FIVE
-0.30103	DRY SLOWLY
-0.30103	EACH MAN
-0.30103	ELDERLY PEOPLE
-0.30103	ELECTRIC HEATER
-0.30103	EMOTIONAL ANAESTHESIA
-0.30103	ENJOY PHYSICAL
-0.30103	EVEN A
-0.30103	EVERY MOVEMENT
-0.30103	EXCLUDED HER
-0.30103	EXPENSIVE PERFUME
-0.30103	EXPLORING WITH
-0.30103	EYEBROW MUSTACHE
-0.30103	EYES EYEBROW
-0.30103	FAMILY REQUESTS
-0.30103	FAVORABLE RESULTS
-0.30103	FEW RURAL
-0.1760913	FIRST TIME	-0.3309932
-0.30103	FIVE FORMS
-0.30103	FLAME WOULD
-0.30103	FLOWERS BE
-0.30103	FOG PREVENTED
-0.30103	FOLLOW SHE
-0.8129134	FOR A
-1.113943	FOR ONE
-1.113943	FOR SEVERAL
-1.113943	FOR SHELTERS
-1.113943	FOR THREE
-1.113943	FOR UNDER
-0.30103	FORMS IN
-0.30103	FRAME CONSTRUCTION
-0.30103	FREEWAY MEAN
-0.30103	FROM ARRIVING
-0.30103	FRUIT OF
-0.30103	GALLON OF
-0.30103	GARAGE JARS
-0.30103	GAS I'D
-0.30103	GATES THE
-0.30103	GEESE THE
-0.30103	GENTLEMAN SHE
-0.30103	GETS VERY
-0.1760913	GLISTENED IN	-0.3899711
-0.30103	GO OUT
-0.04575749	GREASY WASH	0
-0.1760913	GREG TO	-0.4357286
-0.30103	GUARD FOR
-0.30103	GUNMAN KEPT
-0.30103	GUNPOINT FOR
-0.04575749	HAD YOUR	-0.39794
-0.1760913	HALLOWEEN THEY	0
-0.30103	HAND ACHES
-0.30103	HAVE THEIR
-0.60206	HE DREW
-0.60206	HE NEVER
-0.30103	HEALTHIER TO
-0.30103	HEATER IS
-0.1760913	HELP GREG	0
-0.90309	HER RIGHT
-0.90309	HER SKIRT
-0.90309	HER THIGHS
-0.90309	HER WARDROBE
-0.30103	HIGH AS
-0.30103	HIGHWAY AND
-0.90309	HIS ALONE
-0.90309	HIS HISTORY
-0.90309	HIS OWN
-0.90309	HIS VICTIM
-0.60206	HISTORY IN
-0.60206	HISTORY IS
-0.30103	HOURS IGUANAS
-0.1760913	HOUSE IN	-0.3899711
-0.30103	HOUSING THE
-0.30103	HUB WAS
-0.30103	I AM
-0.30103	I'D RATHER
-0.30103	ICY TENTACLES
-0.30103	IDIOSYNCRASIES CALCIUM
-0.30103	IGUANAS AND
-1.518514	IN A
-1.518514	IN AUTUMN
-1.518514	IN BOWL
-1.518514	IN COLD
-0.5642715	IN GREASY	0
-1.518514	IN IT
-0.7403627	IN THE	-0.1986809
-1.518514	IN TWO
-1.518514	IN VIGOROUS
-1.518514	IN WHAT
-0.30103	INFANCY AND
-0.30103	INGREDIENTS IN
-0.30103	IRONIC FRUIT
-0.6690068	IS A	-0.2044747
-1.146128	IS ADVISABLE
-1.146128	IS HIS
-1.146128	IS PORK
-1.146128	IS THE
-1.146128	IS THINNER
-1	IT CIRCLED
-1	IT IS
-1	IT MICHAEL
-1	IT WAS
-1	IT WOULD
-0.30103	IT'S HEALTHIER
-0.1760913	ITEM ON	-0.3802113
-0.30103	ITS ICY
-0.30103	ITSELF DAPHNE'S
-0.30103	JACKASS UNTIL
-0.30103	JARS ARE
-0.30103	JENNIFER'S BUGLE
-0.30103	JUST A
-0.30103	KEPT HIS
-0.30103	KNEW THAT
-0.30103	LARGE BOWL
-0.30103	LET ALL
-0.30103	LETTERS WRITTEN
-0.1139434	LIKE THAT
-1.113943	LIKE THIS
-0.30103	LITERATURE WILL
-0.30103	LOWER PORTION
-0.30103	LUNCH DON'T
-0.39794	MADE OF	-0.446087
-0.69897	MADE SEEMED
-0.1760913	MAKES BONES	0
-0.30103	MAN MUST
-0.30103	MANIFEST ITSELF
-0.30103	MARK OF
-0.30103	MARRIAGE DON'T
-0.30103	MASONRY AND
-0.30103	MATCHED HER
-1.113943	ME IT
-0.1139434	ME TO	-0.7781513
-0.30103	MEAN THE
-0.30103	MEANS RISING
-0.30103	MEAT SHOWING
-0.30103	MEDICAL ASSISTANCE
-0.1760913	MICHAEL COLORED	0
-0.30103	MINE CALL
-0.1760913	MISQUOTE WAS	-0.3899711
-0.30103	MOLD PROPRIETY
-0.30103	MOM STRONGLY
-0.30103	MORAL NATURE
-0.1760913	MORNING DEW	0
-0.30103	MOVEMENT SHE
-0.30103	MUST RECOGNIZE
-0.30103	MUSTACHE SHE
-0.30103	NATURE THE
-0.30103	NEEDLEPOINT SCARF
-0.30103	NEVER DID
-0.30103	NOISY THE
-0.30103	NOT BUY
-0.30103	NOVEL IS
-0.30103	NOWADAYS WE
-0.1760913	OBJECTS MADE	-0.2552725
-0.30103	OBSERVANCE THE
-0.30103	OBVERSE OF
-1.161368	OF A
-1.462398	OF BEING
-1.462398	OF BUTTER
-1.462398	OF DEATH
-1.462398	OF DIMES
-1.462398	OF GAS
-1.462398	OF JENNIFER'S
-1.462398	OF MASONRY
-1.462398	OF ONLY
-1.161368	OF PEWTER	0
-1.161368	OF POTATOES
-1.462398	OF PRIMARY
-1.462398	OF TRIVIALITY
-0.7781513	OFTEN CURIOUS
-0.7781513	OFTEN EXCLUDED
-0.7781513	OFTEN TEMPTED
-0.30103	OH THE
-0.30103	OIL WHEN
-0.04139268	OILY RAG	0
-0.30103	OLD PEOPLE
-0.30103	OMITTED IT
-1	ON A
-0.69897	ON HALLOWEEN	0
-0.69897	ON THE	-0.4656918
-1	ON TIME
-0.60206	ONE GALLON
-0.60206	ONE MEAT
-0.30103	ONLY SKIRTS
-0.30103	ORDER IN
-0.30103	ORGANIZATIONS PROMOTE
-0.30103	OTHERS WHY
-0.30103	OUT PUT
-0.30103	OVERALLS DON'T
-0.30103	OVERCHARGED HER
-0.39794	OWN A	-0.4597472
-0.69897	OWN HISTORY
-0.30103	PARENTAL APPROVAL
-0.30103	PARENTHOOD ORGANIZATIONS
-0.30103	PATIENT'S PSYCHICAL
-0.1760913	PECK OF	-0.446087
-0.60206	PEOPLE ARE
-0.60206	PEOPLE HAVE
-0.30103	PERFUME </s>
-0.1760913	PEWTER ARE	-0.4149733
-0.30103	PHYSICAL CONTACT
-0.1760913	PICK A	-0.4597472
-0.30103	PILL DON'T
-0.30103	PIZZERIAS ARE
-0.30103	PLANNED PARENTHOOD
-0.30103	POISONED ME
-0.30103	POND AND
-0.1760913	POPULAR ITEM	0
-0.30103	PORK DON'T
-0.30103	PORTABLE ELECTRIC
-0.30103	PORTION PROVIDES
-0.60206	POTATOES A
-0.60206	POTATOES HIS
-0.30103	PRESSURE CHANGES
-0.30103	PRETTY IN
-0.30103	PREVENTED THEM
-0.30103	PRIMARY LITERATURE
-0.30103	PROJECTS DRY
-0.30103	PROMOTE BIRTH
-0.30103	PROPRIETY WAS
-0.30103	PROTECTED BY
-0.30103	PROVIDES A
-0.30103	PSYCHICAL BLINDNESS
-0.30103	PURCHASERS REJECTED
-0.30103	PUT THE
-0.30103	QUARTERS AT
-0.30103	QUESTIONS BUT
-0.30103	QUICK LUNCH
-0.04139268	RAG LIKE	-0.4045706
-0.30103	RATHER NOT
-0.30103	RATING AT
-0.30103	REASSURANCE THE
-0.30103	RECOGNIZE HIS
-0.30103	RECTOR WAS
-0.30103	RED CASHMERE
-0.30103	REJECTED THE
-0.1760913	REMOTE COUNTRYSIDE	0
-0.30103	REPTILES WE
-0.30103	REQUESTS THAT
-0.30103	REQUIRES PARENTAL
-0.30103	RESULTS AT
-0.1760913	RETRACTED WITH	-0.39794
-0.30103	RIGHT HAND
-0.30103	RISING STREAMS
-0.30103	RITUAL OBSERVANCE
-0.30103	ROB SAT
-0.30103	RULE THE
-0.1760913	RUN THE	-0.4656918
-0.30103	RURAL AREAS
-0.30103	SAME THING
-0.30103	SAT BY
-0.30103	SCARED THE
-0.30103	SCARF MATCHED
-0.30103	SEEMED UNNECESSARILY
-0.30103	SEVERAL DAYS
-0.30103	SHALLOWNESS EMOTIONAL
-0.30103	SHAME TO
-0.1760913	SHAVING CREAM	0
-0.1918855	SHE HAD	0
-1.146128	SHE IS
-1.146128	SHE MADE
-0.30103	SHELTERS IN
-0.30103	SHIPMATE OF
-0.30103	SHOES THAN
-0.30103	SHORT SKIRMISH
-0.30103	SHOWING FAVORABLE
-0.30103	SIMPLE VOCABULARY
-0.30103	SKETCHED THE
-0.30103	SKIRMISH ELDERLY
-0.30103	SKIRT LET
-0.30103	SKIRTS AND
-0.30103	SLEEPING PILL
-0.30103	SLOWLY FOR
-0.30103	SOME EXPENSIVE
-0.30103	SOUND OF
-0.1760913	SPIDER WEB	0
-0.30103	SPILLED SOME
-0.60206	SQUEAKED AGAIN
-0.60206	SQUEAKED ON
-0.30103	STAGE BETWEEN
-0.30103	STERILIZATION DOSES
-0.30103	STEVE WORE
-0.30103	STILL AND
-0.1760913	STOCKINGS RUN	0
-0.30103	STORY LIKE
-0.30103	STRAY GEESE
-0.30103	STREAMS OF
-0.1760913	STRONG OBJECTS	0
-0.30103	STRONGLY DISLIKES
-0.30103	STRUCTURES HOUSING
-0.30103	STUPID JACKASS
-0.30103	SUGAR FEW
-0.04575749	SUIT IN	-0.8616973
-0.1760913	SUN CHEAP	0
-0.30103	SUPERB SLEEPING
-0.30103	SWEATER THAT
-0.30103	SWEDISH NEEDLEPOINT
-0.30103	SWING YOUR
-0.30103	SYMBOLS THE
-0.30103	SYNONYMOUS WITH
-0.30103	TABLE IN
-0.30103	TALK AS
-0.1760913	TEETH STRONG	0
-0.30103	TEMPTED TO
-0.30103	TENTACLES COMBINE
-0.30103	TERMS SHE
-0.60206	THAN BE
-0.60206	THAN I
-1.447158	THAT A
-1.447158	THAT ADDED
-1.447158	THAT AS
-1.447158	THAT BEG
-1.447158	THAT CALCIUM
-1.447158	THAT FLOWERS
-1.447158	THAT GUARD
-1.447158	THAT HIGHWAY
-1.447158	THAT IT
-1.447158	THAT IT'S
-1.447158	THAT NOWADAYS
-1.447158	THAT OLD
-1.447158	THAT SHAVING
-1.447158	THAT STEVE
-1.886491	THE ANTELOPE
-1.886491	THE APARTMENTS
-1.886491	THE AUTISTIC
-1.886491	THE BAROMETRIC
-1.585461	THE BEDROOM	0
-1.886491	THE BLITZ
-1.886491	THE BOX
-1.886491	THE BUTCHER
-1.886491	THE CLUMSY
-1.886491	THE CRANBERRY
-1.886491	THE FAMILY
-1.585461	THE FIRST	0
-1.886491	THE FOG
-1.886491	THE GARAGE
-1.886491	THE GUNMAN
-1.886491	THE INGREDIENTS
-1.886491	THE IRONIC
-1.886491	THE LOWER
-1.886491	THE MARK
-1.585461	THE MISQUOTE	0
-1.585461	THE MORNING	0
-1.886491	THE OBVERSE
-1.886491	THE ONE
-1.886491	THE ORDER
-1.886491	THE PATIENT'S
-1.886491	THE POND
-1.886491	THE PURCHASERS
-1.585461	THE REMOTE	0
-1.886491	THE SAME
-1.886491	THE SOUND
-1.585461	THE SPIDER	0
-1.886491	THE STRAY
-1.886491	THE STRUCTURES
-1.585461	THE SUN	0
-1.886491	THE TIME
-0.30103	THEIR IDIOSYNCRASIES
-0.30103	THEM FROM
-0.30103	THEN DID
-0.30103	THESE SHOES
-0.1760913	THEY OWN	-0.2552725
-0.1760913	THEY'RE WORN	0
-0.30103	THIGHS EXPLORING
-0.30103	THING THE
-0.30103	THINNER THAN
-0.60206	THIS SHE
-0.60206	THIS THE
-0.30103	THOUGH THE
-0.30103	THREE HOURS
-0.30103	THROW AWAY
-0.845098	TIME IN
-0.845098	TIME OF
-0.544068	TIME THEY'RE	0
-1.342423	TO ASK
-0.3424227	TO CARRY	0
-1.342423	TO COOK
-1.342423	TO DATE
-1.041393	TO PICK	0
-1.342423	TO THROW
-0.30103	TOLL GATES
-0.30103	TOO WERE
-0.30103	TRADITION REQUIRES
-0.30103	TRAFFIC MEANS
-0.30103	TRIVIALITY SHALLOWNESS
-0.30103	TROPICAL REPTILES
-0.30103	TRUE GENTLEMAN
-0.30103	TWO LETTERS
-0.30103	UNDER AGE
-0.30103	UNNECESSARILY NOISY
-0.30103	UNTIL YOU
-0.30103	UP AIR
-0.60206	USE MINE
-0.60206	USE UP
-0.30103	VERY PRETTY
-0.30103	VICTIM CORNERED
-0.30103	VIGOROUS TERMS
-0.30103	VOCABULARY CONTAINS
-0.1760913	WALL WITH	-0.39794
-0.30103	WARDROBE CONSISTS
-1.041393	WAS AS
-1.041393	WAS OFTEN
-0.7403627	WAS RETRACTED	0
-1.041393	WAS STILL
-1.041393	WAS SYNONYMOUS
-0.04575749	WASH WATER	0
-0.04575749	WATER ALL	-0.552842
-0.30103	WAYS THEN
-0.60206	WE KNEW
-0.60206	WE TALK
-0.1760913	WEB GLISTENED	0
-0.60206	WERE A
-0.60206	WERE JUST
-0.30103	WHAT WAYS
-0.30103	WHEEL SQUEAKED
-0.30103	WHEN YOU
-0.30103	WHENEVER THE
-0.60206	WHY ACCUSE
-0.60206	WHY BUY
-0.30103	WILL FOLLOW
-0.7781513	WITH AN	-0.4191293
-0.7781513	WITH CRAYONS
-1.079181	WITH ITS
-1.079181	WITH OTHERS
-1.079181	WITH RITUAL
-0.30103	WITHOUT SUGAR
-0.30103	WORE A
-0.1760913	WORN SHE	-0.02996325
-0.60206	WOULD BE
-0.60206	WOULD USE
-0.30103	WRITTEN IN
-1.176091	YEAR A
-1.176091	YEAR COVERAGE
-0.5740313	YEAR DON'T	-0.154902
-1.176091	YEAR IT
-1.176091	YEAR PIZZERIAS
-1.176091	YEAR TO
-0.30103	YET EACH
-1.079181	YOU ALWAYS
-1.079181	YOU BUY
-1.079181	YOU CAN
-1.079181	YOU GO
-1.079181	YOU POISONED
-1.079181	YOU TOO
-1.079181	YOUR ARM
-0.1249387	YOUR DARK	0
-0.30103	ZONING RECTOR

\3-grams:
-0.39794	IS A POPULAR
-0.1760913	OWN A BIG
-0.1760913	PICK A PECK
-0.04575749	WATER ALL YEAR
-0.04139268	CARRY AN OILY
-0.1760913	WITH AN APOLOGY
-0.1760913	BONES AND TEETH
-0.1760913	PEWTER ARE BEAUTIFUL
-0.04139268	DON'T ASK ME
-0.1760913	THE BEDROOM WALL
-0.1760913	A BIG HOUSE
-0.1760913	MAKES BONES AND
-0.04139268	TO CARRY AN
-0.1760913	DO CHARLIE'S DIRTY
-0.1760913	SUN CHEAP STOCKINGS
-0.1760913	MICHAEL COLORED THE
-0.1760913	REMOTE COUNTRYSIDE HELP
-0.1760913	SHAVING CREAM IS
-0.04575749	YOUR DARK SUIT
-0.1760913	MORNING DEW ON
-0.1760913	CHARLIE'S DIRTY DISHES
-0.1760913	DON'T DO CHARLIE'S
-0.09691001	YEAR DON'T ASK
-0.1760913	THE FIRST TIME
-0.1760913	WEB GLISTENED IN
-0.04575749	IN GREASY WASH
-0.1760913	HELP GREG TO
-0.04575749	SHE HAD YOUR
-0.1760913	ON HALLOWEEN THEY
-0.1760913	COUNTRYSIDE HELP GREG
-0.1760913	BIG HOUSE IN
-0.1760913	GLISTENED IN THE
-0.1760913	HOUSE IN THE
-0.04575749	SUIT IN GREASY
-0.1760913	CREAM IS A
-0.1760913	POPULAR ITEM ON
-0.04139268	RAG LIKE THAT
-0.1760913	OBJECTS MADE OF
-0.1760913	CALCIUM MAKES BONES
-0.04139268	ASK ME TO
-0.1760913	THE MISQUOTE WAS
-0.1760913	THE MORNING DEW
-0.1760913	STRONG OBJECTS MADE
-0.1760913	MADE OF PEWTER
-0.1760913	PECK OF POTATOES
-0.04139268	AN OILY RAG
-0.1760913	DEW ON THE
-0.1760913	ITEM ON HALLOWEEN
-0.1760913	THEY OWN A
-0.1760913	A PECK OF
-0.1760913	OF PEWTER ARE
-0.1760913	TO PICK A
-0.1760913	A POPULAR ITEM
-0.04139268	OILY RAG LIKE
-0.1760913	THE REMOTE COUNTRYSIDE
-0.1760913	WAS RETRACTED WITH
-0.1760913	STOCKINGS RUN THE
-0.1760913	WORN SHE HAD
-0.1760913	THE SPIDER WEB
-0.1760913	CHEAP STOCKINGS RUN
-0.1760913	TEETH STRONG OBJECTS
-0.04575749	DARK SUIT IN
-0.1760913	THE SUN CHEAP
-0.1760913	AND TEETH STRONG
-0.1760913	COLORED THE BEDROOM
-0.69897	IN THE REMOTE
-0.69897	IN THE SUN
-0.1760913	ON THE SPIDER
-0.1760913	RUN THE FIRST
-0.1760913	HALLOWEEN THEY OWN
-0.1760913	TIME THEY'RE WORN
-0.1760913	FIRST TIME THEY'RE
-0.1760913	GREG TO PICK
-0.04139268	ME TO CARRY
-0.1760913	BEDROOM WALL WITH
-0.1760913	MISQUOTE WAS RETRACTED
-0.04575749	GREASY WASH WATER
-0.04575749	WASH WATER ALL
-0.1760913	SPIDER WEB GLISTENED
-0.1760913	RETRACTED WITH AN
-0.1760913	WALL WITH CRAYONS
-0.1760913	THEY'RE WORN SHE
-0.5740313	ALL YEAR DON'T
-0.04575749	HAD YOUR DARK

\end\
