
\data\
ngram 1=6
ngram 2=4
ngram 3=0

\1-grams:
-0.30103	!!UNK
-0.90309	</s>
-99	<s>	-0.243038
-0.90309	CARRY	-0.243038
-0.90309	ME	-0.243038
-0.90309	TO	-0.243038

\2-grams:
-0.30103	<s> ME
-0.30103	CARRY </s>
-0.30103	ME TO
-0.30103	TO CARRY

\3-grams:

\end\
