
\data\
ngram 1=6
ngram 2=4
ngram 3=0

\1-grams:
-0.30103	!!UNK
-0.90309	</s>
-99	<s>	-0.243038
-0.90309	DARK	-0.243038
-0.90309	HAD	-0.243038
-0.90309	YOUR	-0.243038

\2-grams:
-0.30103	<s> HAD
-0.30103	DARK </s>
-0.30103	HAD YOUR
-0.30103	YOUR DARK

\3-grams:

\end\
