
\data\
ngram 1=5
ngram 2=3
ngram 3=0

\1-grams:
-0.30103	!!UNK
-0.7781513	</s>
-99	<s>	-0.2218487
-0.7781513	AN	-0.2218487
-0.7781513	CARRY	-0.2218487

\2-grams:
-0.30103	<s> CARRY
-0.30103	AN </s>
-0.30103	CARRY AN

\3-grams:

\end\
