
\data\
ngram 1=6
ngram 2=4
ngram 3=0

\1-grams:
-0.30103	!!UNK
-0.90309	</s>
-99	<s>	-0.243038
-0.90309	CHEAP	-0.243038
-0.90309	SUN	-0.243038
-0.90309	THE	-0.243038

\2-grams:
-0.30103	<s> THE
-0.30103	CHEAP </s>
-0.30103	SUN CHEAP
-0.30103	THE SUN

\3-grams:

\end\
