
\data\
ngram 1=6
ngram 2=4
ngram 3=0

\1-grams:
-0.30103	!!UNK
-0.90309	</s>
-99	<s>	-0.243038
-0.90309	ICY	-0.243038
-0.90309	ITS	-0.243038
-0.90309	WITH	-0.243038

\2-grams:
-0.30103	<s> WITH
-0.30103	ICY </s>
-0.30103	ITS ICY
-0.30103	WITH ITS

\3-grams:

\end\
