
\data\
ngram 1=6
ngram 2=4
ngram 3=0

\1-grams:
-0.30103	!!UNK
-0.90309	</s>
-99	<s>	-0.243038
-0.90309	ACHES	-0.243038
-0.90309	THE	-0.243038
-0.90309	WHENEVER	-0.243038

\2-grams:
-0.30103	<s> ACHES
-0.30103	ACHES WHENEVER
-0.30103	THE </s>
-0.30103	WHENEVER THE

\3-grams:

\end\
