
\data\
ngram 1=11
ngram 2=9
ngram 3=0

\1-grams:
-0.30103	!!UNK
-1.255273	</s>
-99	<s>	-0.2762064
-1.255273	AN	-0.2762064
-1.255273	ASK	-0.2762064
-1.255273	CARRY	-0.2762064
-1.255273	LIKE	-0.2762064
-1.255273	ME	-0.2762064
-1.255273	OILY	-0.2762064
-1.255273	RAG	-0.2762064
-1.255273	TO	-0.2762064

\2-grams:
-0.30103	<s> ASK
-0.30103	AN OILY
-0.30103	ASK ME
-0.30103	CARRY AN
-0.30103	LIKE </s>
-0.30103	ME TO
-0.30103	OILY RAG
-0.30103	RAG LIKE
-0.30103	TO CARRY

\3-grams:

\end\
