
\data\
ngram 1=5
ngram 2=3
ngram 3=0

\1-grams:
-0.30103	!!UNK
-0.7781513	</s>
-99	<s>	-0.2218487
-0.7781513	TEMPTED	-0.2218487
-0.7781513	TO	-0.2218487

\2-grams:
-0.30103	<s> TEMPTED
-0.30103	TEMPTED TO
-0.30103	TO </s>

\3-grams:

\end\
