
\data\
ngram 1=13
ngram 2=11
ngram 3=0

\1-grams:
-0.30103	!!UNK
-1.342423	</s>
-99	<s>	-0.2808266
-1.342423	ALL	-0.2808266
-1.342423	COMBINE	-0.2808266
-1.342423	EXPLORING	-0.2808266
-1.342423	HER	-0.2808266
-1.342423	ICY	-0.2808266
-1.342423	ITS	-0.2808266
-1.342423	TENTACLES	-0.2808266
-1.342423	THE	-0.2808266
-1.342423	THIGHS	-0.2808266
-1.342423	WITH	-0.2808266

\2-grams:
-0.30103	<s> HER
-0.30103	ALL THE
-0.30103	COMBINE ALL
-0.30103	EXPLORING WITH
-0.30103	HER THIGHS
-0.30103	ICY TENTACLES
-0.30103	ITS ICY
-0.30103	TENTACLES COMBINE
-0.30103	THE </s>
-0.30103	THIGHS EXPLORING
-0.30103	WITH ITS

\3-grams:

\end\
