
\data\
ngram 1=9
ngram 2=7
ngram 3=0

\1-grams:
-0.30103	!!UNK
-1.146128	</s>
-99	<s>	-0.2688453
-1.146128	AND	-0.2688453
-1.146128	APARTMENTS	-0.2688453
-1.146128	ARE	-0.2688453
-1.146128	MASONRY	-0.2688453
-1.146128	OF	-0.2688453
-1.146128	THE	-0.2688453

\2-grams:
-0.30103	<s> THE
-0.30103	AND </s>
-0.30103	APARTMENTS ARE
-0.30103	ARE OF
-0.30103	MASONRY AND
-0.30103	OF MASONRY
-0.30103	THE APARTMENTS

\3-grams:

\end\
