
\data\
ngram 1=5
ngram 2=3
ngram 3=0

\1-grams:
-0.30103	!!UNK
-0.7781513	</s>
-99	<s>	-0.2218487
-0.7781513	OBVERSE	-0.2218487
-0.7781513	THE	-0.2218487

\2-grams:
-0.30103	<s> THE
-0.30103	OBVERSE </s>
-0.30103	THE OBVERSE

\3-grams:

\end\
