
\data\
ngram 1=6
ngram 2=4
ngram 3=0

\1-grams:
-0.30103	!!UNK
-0.90309	</s>
-99	<s>	-0.243038
-0.90309	DROP	-0.243038
-0.90309	FIVE	-0.243038
-0.90309	FORMS	-0.243038

\2-grams:
-0.30103	<s> DROP
-0.30103	DROP FIVE
-0.30103	FIVE FORMS
-0.30103	FORMS </s>

\3-grams:

\end\
